0.2855564260171808,0.2467208341970428,0.06210975061233643,0.28318922049180023,-0.12308171380573822,-0.23515454027499358,0.22881328283912922,-0.049630579768484964
-0.005938959253301663,-0.03246935539295953,-0.09121539287065823,-0.16126195322894157,0.060121780856765915,-0.1274156803181425,-0.2991885565181887,0.1405001888271696
-0.21128548300890193,-0.20494562304281946,0.1536830458639396,-0.2561205522458668,-0.12674169895784992,0.2909962131029391,0.3274436043946381,0.321391440427542
-0.24637290008865725,-0.3297967384127974,0.19519343671545647,0.1167320920613498,-0.10158763115879711,-0.10426640041760686,-0.012287961669356268,0.0169892922971452
0.3284777460820291,0.2978415382552388,0.20421810072907526,-0.20521466426266097,-0.23013848719159366,-0.31214350543007435,-0.15870621168055243,-0.09198479505296933
0.31206037459155184,-0.08934136197252933,-0.010681341415861618,-0.20240465233837648,0.277026696381841,-0.19069836963779413,0.2299277524234898,-0.2983818454603478
-0.1784893606154778,0.19637238606425902,-0.18776659890827896,-0.11182245430186416,-0.06224376352335195,-0.007271925693665891,-0.21680289678516823,-0.2387410312715173
-0.2625265222617403,-0.03935475131397468,0.2156045484673695,0.2902276740327858,0.022042078668976953,0.07828952317998455,-0.08873483554597991,0.2492308915416424
0.05365165277878936,0.3108610665740925,0.24440218297750382,-0.08621603247042801,-0.14121430375146443,0.17444268856646664,-0.24733002891629902,0.3001623886998898
