0.290834087669678,0.3265397624042754,0.04647153498987846,0.2222896996477504,-0.12639909246452954,-0.2535678814651779,0.28160757130236913
-0.04467094710066205,0.061245375404756996,-0.044957769460340115,-0.16463244102678015,-0.16707283190383754,0.05745193782677366,-0.1169858352663681
-0.32824686964794086,0.16700458024534515,-0.22534505767145227,-0.24060687025581695,0.16870341861805785,-0.26496297779976397,-0.12817189007992627
0.3065003224816815,0.39028702179229113,0.3319393745395229,-0.31128650723171547,-0.3473905045893103,0.1997351975626931,0.13496804727967257
-0.10865156899159581,-0.10104788738903213,-0.008461295804181236,0.00816193153186267,0.34897188382498195,0.31554817514617345,0.21306622394901675
-0.21991611468558334,-0.23797827174965222,-0.3306320254089306,-0.17233007960008037,-0.09420504454305066,0.3310244428177377,-0.09495249668819088
-0.015280011182594973,-0.18058346591720173,0.2856844736357577,-0.24206857073012886,0.24498259899449074,-0.31540854044403216,-0.17393247494945724
0.20934209032246642,-0.18831656092914195,-0.14069402291833724,-0.07004467658089987,-0.0018493868667486396,-0.22330215386999716,-0.2514292689656529
